{
  "inputSize": 20,
  "hiddenSize": 10,
  "w1": [
    [
      -0.13299298789239464,
      -0.23389406646643487,
      0.07398830191150796,
      0.11622462376942257,
      -0.07356858368753043,
      -0.25201503599761443,
      0.01793477246593763,
      0.31452012371326193,
      -0.18877586140273528,
      0.30018403446186426,
      0.19021083874446654,
      -0.01843193890650075,
      0.1364955067822283,
      0.3036614193101006,
      -0.12731572492377524,
      -0.23200926431486943,
      0.1311263735876179,
      0.2679667339224485,
      -0.12689514569633858,
      -0.3284314954423372
    ],
    [
      0.2747836287046256,
      -0.2171574847257431,
      0.25084245211863104,
      0.30171720534951557,
      0.08754173320823834,
      -0.13271800833916053,
      0.12688106169301494,
      -0.15288648517219222,
      0.3164694350593263,
      0.02321825508942903,
      0.0217406581039018,
      -0.10873695844654181,
      0.20963551865250818,
      -0.2633809110209931,
      0.20391515650703618,
      -0.21102015929729864,
      -0.16673752194211017,
      0.1550106342966131,
      -0.11070677576179999,
      -0.7789376141916454
    ],
    [
      -0.24676861999908223,
      0.3261734386075206,
      0.10854642780068074,
      -0.031843709608512544,
      -0.39591205290406606,
      0.14760705494992918,
      -0.022641395111426953,
      -0.5091421597209861,
      0.09596976602742412,
      -0.06809492003614707,
      -0.30103267225364455,
      0.3480525814077701,
      0.1778843015782315,
      -0.28389762568948035,
      -0.10685486114076753,
      -0.23936049734742681,
      -0.37966826676538773,
      -0.06890883684966692,
      0.6069498955338714,
      0.5984650670204944
    ],
    [
      0.5491603988566561,
      -0.40685161116801427,
      0.21275111561898158,
      0.43037688571650234,
      0.37165464320891817,
      0.27999012526187644,
      0.36403405068509165,
      0.6329960334323907,
      0.08170488919340654,
      0.23488618123570718,
      0.26975023126373415,
      -0.381067042893422,
      -0.18333623445350583,
      0.11372452839100387,
      0.36241534024215116,
      -0.3990156333186453,
      0.48582261794000237,
      -0.5640176108443434,
      -1.0519932414884303,
      -1.2754517514981407
    ],
    [
      -0.19619550836474442,
      0.0737611966382829,
      0.23796459114060806,
      -0.2839123570071534,
      0.19708258657016373,
      -0.0495763202253403,
      -0.04633351827684974,
      -0.3051549916551652,
      0.30478570897752555,
      0.0015626726659605718,
      0.07271971518431218,
      -0.21200188935617112,
      0.1057611615207726,
      -0.30455785774272015,
      -0.02305007955495946,
      -0.1391282597832054,
      -0.11450015074706514,
      -0.14029202283163023,
      0.15742521308134874,
      -0.15652897773200775
    ],
    [
      -0.12372793791371342,
      -0.2914328518673512,
      -0.05923011211603403,
      -0.12243407763860562,
      -0.16906029781630108,
      0.2978941543894694,
      -0.07806489420575766,
      0.1693812419181465,
      0.009599576107675117,
      0.15653071480959718,
      0.17527708902876338,
      -0.10669633622850679,
      0.12020479993202199,
      -0.22118174827312273,
      0.35771466846049604,
      -0.30904874719236064,
      0.028617223836075154,
      -0.38895716835890565,
      0.0905917523928244,
      -0.12639314509432295
    ],
    [
      0.2025133653603164,
      -0.3327013582444532,
      0.16632391901132473,
      0.3720205578584951,
      -0.11967498798827812,
      -0.12128330541982388,
      0.3123876982716279,
      0.7385546243980098,
      0.02893811313669429,
      0.2979081042256485,
      -0.06697117537409557,
      -0.3538360112091391,
      0.0899608611688147,
      0.039600651312325506,
      -0.07138538220695333,
      -0.05677403287298666,
      0.2744572218460415,
      -0.5242003842542718,
      -0.6080460613438334,
      -1.2400358297178482
    ],
    [
      -0.13275281734823033,
      0.029896407792710755,
      -0.23132001350526354,
      -0.006997103957821583,
      -0.2688438529111493,
      -0.26545477428728975,
      -0.3872712135996137,
      -0.4981204717368319,
      0.23177015287635047,
      -0.40005266804549555,
      -0.40265472290467774,
      -0.15590843605634697,
      -0.26292037004561764,
      0.25861308745760375,
      -0.23833618339929047,
      0.40425411915531023,
      -0.3974191947342721,
      0.49246666903041636,
      0.7807996291673514,
      1.091253507693569
    ],
    [
      -0.6597123724543955,
      0.09900391009020769,
      0.05300347916332634,
      -0.42898963135260765,
      0.012004015085543438,
      0.12169535146999055,
      -0.2467777241470511,
      -0.4683928513824522,
      0.19776453087466056,
      -0.12005594370634656,
      -0.42616519312773027,
      0.2697006757870169,
      -0.19035987702217283,
      -0.23899602642017817,
      -0.3586350526499506,
      0.18317940213745093,
      -0.32472924029816197,
      0.29748837784862464,
      0.7230206323198874,
      0.7230276519876154
    ],
    [
      -0.21025189534828617,
      -0.007050946575249131,
      0.15699981056883297,
      -0.21437147988960842,
      -0.17528215234806507,
      -0.2098826862705239,
      0.029276923064961758,
      -0.23938995562804147,
      0.20635681056137747,
      0.34520803274604767,
      -0.27984934417776486,
      -0.31084629108269834,
      -0.1694179709324291,
      -0.27377297909553844,
      -0.23206525228766336,
      -0.025716708860119664,
      -0.21804444361167097,
      -0.33287365674420843,
      0.07473145171928429,
      -0.39775287200414244
    ]
  ],
  "b1": [
    0.12224212472792956,
    0.1945611951389245,
    -0.4319667602355231,
    0.6019516543047131,
    -0.02800239636230954,
    0.06019177062016452,
    0.733059988984033,
    -0.5262557839606322,
    -0.2895763612577041,
    0.08344149425664561
  ],
  "w2": [
    -0.4179647048646258,
    -0.7843386536310756,
    1.211854019705626,
    -2.540788301410707,
    0.08216549236836519,
    -0.2669368317968561,
    -2.013213157687227,
    1.7906700684062298,
    1.5370942942751145,
    -0.18537289333286627
  ],
  "b2": -0.4227741839651611,
  "accuracy": 1,
  "epochs": 1600
}
